/*!
* Copyright 1990-1992 as an unpublished work by Bitstream Inc. All rights
* reserved. Confidential. Copyright (c) ParaType, Inc., 2002. All rights
* reserved.
*/
Cufon.registerFont({"w":521,"face":{"font-family":"GeoSlb","font-weight":700,"font-stretch":"normal","units-per-em":"1000","panose-1":"2 0 8 3 0 0 0 0 0 0","ascent":"800","descent":"-200","x-height":"14","bbox":"-35 -941 1100 236","underline-thickness":"50","underline-position":"-100","stemh":" 121 ","stemv":" 149 ","unicode-range":"U+0020-U+2265"},"glyphs":{" ":{"w":233},"a":{"d":"324,0r0,-34v-59,44,-116,48,-142,48v-95,0,-156,-59,-156,-155v0,-104,69,-174,175,-174v38,0,84,11,123,27r0,-30v0,-38,-9,-94,-84,-94v-59,0,-84,30,-94,45r-109,-24v15,-48,58,-115,206,-115v129,0,182,41,205,75v25,37,24,77,24,123r0,199r70,0r0,109r-218,0xm324,-132r0,-57v-25,-20,-55,-31,-82,-31v-35,0,-70,18,-70,69v0,47,29,65,58,65v35,0,73,-26,94,-46","w":546},"b":{"d":"224,0r-213,0r0,-109r65,0r0,-479r-65,0r0,-106r213,0r0,270v29,-31,79,-70,146,-70v115,0,217,93,217,262v0,168,-103,246,-208,246v-94,0,-141,-60,-155,-79r0,65xm328,-98v54,0,106,-42,106,-144v0,-85,-38,-143,-106,-143v-66,0,-105,57,-105,143v0,101,51,144,105,144","w":616},"c":{"d":"411,-292v-16,-56,-58,-94,-117,-94v-60,0,-116,37,-116,139v0,103,56,140,118,140v63,0,106,-42,124,-93r116,59v-48,101,-139,155,-248,155v-156,0,-260,-103,-260,-258v0,-153,100,-262,244,-262v83,0,126,36,145,56r0,-44r106,0r0,200","w":556},"d":{"d":"605,-109r0,109r-213,0r0,-65v-37,53,-93,79,-154,79v-106,0,-209,-80,-209,-247v0,-175,109,-261,213,-261v24,0,87,3,150,70r0,-164r-65,0r0,-106r213,0r0,585r65,0xm288,-98v55,0,104,-44,104,-144v0,-86,-36,-143,-104,-143v-68,0,-106,58,-106,143v0,101,52,144,106,144","w":616},"e":{"d":"181,-219v1,45,22,123,118,123v47,0,87,-22,109,-66r116,37v-61,136,-210,139,-241,139v-152,0,-255,-101,-255,-260v0,-157,101,-260,254,-260v168,0,255,117,255,281r0,6r-356,0xm182,-303r197,0v-3,-52,-39,-94,-98,-94v-57,0,-96,38,-99,94","w":567},"f":{"d":"12,0r0,-109r64,0r0,-279r-64,0r0,-106r64,0r0,-54v0,-99,69,-158,179,-158v32,0,123,4,156,98r-124,45v-4,-25,-21,-42,-36,-42v-10,0,-26,7,-26,46r0,65r78,0r0,106r-78,0r0,279r78,0r0,109r-291,0","w":314},"g":{"d":"290,-98v57,0,105,-46,105,-144v0,-86,-39,-143,-105,-143v-68,0,-106,58,-106,143v0,101,51,144,106,144xm64,114r74,-85v70,33,119,35,140,35v116,0,120,-80,118,-111r-2,-28v-56,71,-125,75,-155,75v-125,0,-208,-93,-208,-239v0,-142,86,-255,213,-255v67,0,121,35,156,76r0,-76r207,0r0,106r-65,0r0,326v0,50,0,111,-44,160v-37,41,-109,76,-220,76v-109,0,-175,-34,-214,-60","w":618},"h":{"d":"12,0r0,-109r64,0r0,-479r-64,0r0,-106r213,0r0,249v68,-46,120,-49,145,-49v131,0,135,129,135,164r0,221r69,0r0,109r-219,0r0,-293v0,-50,-10,-81,-54,-81v-24,0,-52,11,-75,32r0,233r74,0r0,109r-288,0","w":579},"i":{"d":"81,-388r-65,0r0,-106r213,0r0,385r70,0r0,109r-283,0r0,-109r65,0r0,-279xm67,-624v0,-46,36,-82,81,-82v46,0,83,37,83,81v0,46,-37,82,-83,82v-44,0,-81,-35,-81,-81","w":306},"j":{"d":"60,-624v0,-46,36,-82,81,-82v46,0,83,36,83,82v0,44,-37,81,-83,81v-44,0,-81,-35,-81,-81xm74,-388r-64,0r0,-106r212,0r0,474v0,74,-17,195,-194,195v-20,0,-45,-4,-61,-6r0,-115r24,1v79,3,83,-37,83,-91r0,-352","w":288},"k":{"d":"226,-109r74,0r0,109r-288,0r0,-109r64,0r0,-479r-64,0r0,-106r214,0r0,585xm229,-249r157,-139r-90,0r0,-106r283,0r0,106r-54,0r-136,122r131,157r59,0r0,109r-146,0","w":583},"l":{"d":"76,-588r-64,0r0,-106r213,0r0,585r69,0r0,109r-282,0r0,-109r64,0r0,-479","w":301},"m":{"d":"639,0r0,-293v0,-50,-10,-81,-54,-81v-23,0,-52,10,-76,32r0,233r70,0r0,109r-219,0r0,-293v0,-50,-10,-81,-54,-81v-23,0,-52,10,-76,32r0,233r75,0r0,109r-289,0r0,-109r65,0r0,-278r-65,0r0,-107r213,0r0,49v33,-22,86,-49,140,-49v42,0,87,14,115,57v49,-31,115,-57,168,-57v56,0,136,26,136,164r0,221r70,0r0,109r-219,0","w":862},"n":{"d":"16,0r0,-109r65,0r0,-278r-65,0r0,-107r213,0r0,49v68,-46,121,-49,142,-49v76,0,138,40,138,164r0,221r70,0r0,109r-219,0r0,-293v0,-52,-11,-81,-53,-81v-32,0,-60,17,-77,32r0,233r75,0r0,109r-289,0","w":583},"o":{"d":"550,-246v0,156,-107,260,-262,260v-156,0,-260,-103,-260,-259v0,-159,106,-261,260,-261v153,0,262,101,262,260xm288,-107v71,0,110,-57,110,-140v0,-102,-55,-138,-110,-138v-71,0,-110,56,-110,138v0,83,39,140,110,140","w":578},"p":{"d":"76,-388r-65,0r0,-106r207,0r0,76v28,-32,80,-76,154,-76v107,0,215,86,215,262v0,168,-102,246,-210,246v-81,0,-129,-47,-153,-79r0,118r72,0r0,109r-285,0r0,-109r65,0r0,-441xm328,-98v56,0,106,-43,106,-144v0,-87,-39,-143,-106,-143v-66,0,-105,56,-105,143v0,103,51,144,105,144","w":616},"q":{"d":"288,-98v57,0,104,-44,104,-144v0,-86,-36,-143,-104,-143v-68,0,-106,58,-106,143v0,102,52,144,106,144xm605,53r0,109r-285,0r0,-109r72,0r0,-118v-14,19,-61,79,-155,79v-106,0,-208,-80,-208,-246v0,-176,109,-262,215,-262v65,0,118,34,154,76r0,-76r207,0r0,106r-65,0r0,441r65,0","w":616},"r":{"d":"81,-388r-65,0r0,-106r200,0r0,117v14,-45,45,-88,83,-108v30,-16,72,-21,100,-21r0,153v-68,1,-114,20,-138,48v-28,32,-32,77,-32,107r0,89r77,0r0,109r-290,0r0,-109r65,0r0,-279","w":414},"s":{"d":"43,0r0,-174r116,0v0,52,39,84,101,84v45,0,68,-21,68,-50v0,-33,-28,-39,-78,-50r-99,-22v-25,-5,-120,-31,-120,-139v0,-95,71,-155,169,-155v54,0,99,20,126,35r0,-23r111,0r0,143r-111,0v-26,-46,-74,-55,-104,-55v-39,0,-56,18,-56,37v0,33,41,38,73,44r79,16v30,6,67,15,97,40v24,20,48,55,48,114v0,35,-11,77,-35,107v-28,35,-77,62,-142,62v-54,0,-102,-20,-127,-33r0,19r-116,0","w":495},"t":{"d":"218,-176v0,45,4,67,41,67v19,0,37,-6,49,-13r0,110v-40,21,-76,26,-108,26v-113,0,-131,-56,-131,-140r0,-262r-57,0r0,-106r57,0r0,-56r149,-126r0,182r90,0r0,106r-90,0r0,212","w":324},"u":{"d":"502,-494r0,388r65,0r0,106r-213,0r0,-35v-68,45,-121,49,-145,49v-133,0,-135,-133,-135,-165r0,-234r-69,0r0,-109r219,0r0,294v0,67,8,94,52,94v30,0,58,-16,77,-33r0,-246r-75,0r0,-109r224,0","w":579},"v":{"d":"201,0r-151,-388r-69,0r0,-106r281,0r0,106r-59,0r80,241r89,-241r-60,0r0,-106r246,0r0,106r-71,0r-153,388r-133,0","w":539},"w":{"d":"395,-315r-89,315r-134,0r-119,-388r-69,0r0,-106r266,0r0,106r-54,0r61,221r93,-327r128,0r96,327r64,-221r-52,0r0,-106r221,0r0,106r-69,0r-118,388r-129,0","w":794},"x":{"d":"-1,0r0,-109r69,0r100,-133r-103,-146r-55,0r0,-106r160,0r90,137r97,-137r133,0r0,106r-64,0r-94,127r106,152r71,0r0,109r-173,0r-96,-146r-104,146r-137,0","w":507},"y":{"d":"95,162r0,-106r104,0r22,-54r-170,-390r-65,0r0,-106r270,0r0,106r-56,0r91,219r80,-219r-52,0r0,-106r232,0r0,106r-66,0r-215,550r-175,0","w":539},"z":{"d":"15,0r0,-100r278,-295r-157,0r0,71r-100,0r0,-170r425,0r0,106r-272,288r176,0r0,-77r99,0r0,177r-449,0","w":486},"A":{"d":"-20,0r0,-113r76,0r153,-473r-94,0r0,-108r463,0r0,108r-83,0r154,473r63,0r0,113r-308,0r0,-113r74,0r-38,-130r-201,0r-37,130r77,0r0,113r-299,0xm265,-333r151,0r-75,-257","w":692},"B":{"d":"255,-110r53,0v49,0,119,-6,119,-91v0,-106,-100,-109,-131,-109r-41,0r0,200xm255,-412r42,0v97,0,110,-50,110,-91v0,-81,-65,-85,-110,-85r-42,0r0,176xm16,-694r303,0v65,0,251,2,251,186v0,28,-5,110,-106,139v83,27,128,95,128,178v0,122,-87,191,-235,191r-341,0r0,-113r74,0r0,-473r-74,0r0,-108","w":632},"C":{"d":"597,-454v-20,-40,-79,-134,-193,-134v-94,0,-190,65,-190,239v0,172,94,239,193,239v121,0,182,-101,204,-175r122,59v-75,233,-292,240,-336,240v-90,0,-186,-24,-264,-101v-56,-55,-103,-138,-103,-261v0,-121,45,-203,101,-259v77,-77,169,-99,251,-99v106,0,170,37,215,86r0,-74r103,0r0,240r-103,0","w":759},"D":{"d":"26,-694r340,0v218,0,342,128,342,347v0,294,-213,347,-342,347r-340,0r0,-113r74,0r0,-473r-74,0r0,-108xm269,-113v245,30,255,-156,255,-237v0,-99,-28,-259,-255,-236r0,473","w":712},"E":{"d":"473,-113r0,-114r125,0r0,227r-582,0r0,-113r74,0r0,-473r-74,0r0,-108r582,0r0,215r-125,0r0,-107r-214,0r0,170r177,0r0,114r-177,0r0,189r214,0","w":625},"F":{"d":"353,-113r0,113r-337,0r0,-113r74,0r0,-473r-74,0r0,-108r563,0r0,215r-125,0r0,-107r-195,0r0,170r147,0r0,114r-147,0r0,189r94,0","w":593},"G":{"d":"603,-454v-23,-47,-84,-134,-195,-134v-97,0,-192,66,-192,239v0,146,70,239,196,239v82,0,154,-43,164,-128r-121,0r0,-112r296,0r0,21v0,210,-134,343,-352,343v-125,0,-209,-46,-265,-101v-55,-55,-104,-139,-104,-259v0,-140,62,-221,102,-261v88,-87,191,-99,256,-99v74,0,151,18,215,86r0,-74r103,0r0,240r-103,0","w":782},"H":{"d":"16,0r0,-113r74,0r0,-473r-74,0r0,-108r307,0r0,108r-64,0r0,159r199,0r0,-159r-63,0r0,-108r306,0r0,108r-74,0r0,473r74,0r0,113r-306,0r0,-113r63,0r0,-201r-199,0r0,201r64,0r0,113r-307,0","w":718},"I":{"d":"16,0r0,-113r74,0r0,-473r-74,0r0,-108r317,0r0,108r-74,0r0,473r74,0r0,113r-317,0","w":350},"J":{"d":"-33,20v14,4,36,9,56,9v56,0,70,-31,70,-106r0,-509r-86,0r0,-108r329,0r0,108r-74,0r0,507v0,97,-18,241,-207,241v-32,0,-60,-5,-88,-14r0,-128","w":350},"K":{"d":"16,0r0,-113r74,0r0,-473r-74,0r0,-108r317,0r0,108r-74,0r0,473r74,0r0,113r-317,0xm384,0r0,-113r73,0r-194,-254r211,-219r-76,0r0,-108r287,0r0,108r-58,0r-190,199r216,274r74,0r0,113r-343,0","w":685},"L":{"d":"449,-113r0,-213r109,0r0,326r-542,0r0,-113r74,0r0,-473r-74,0r0,-108r317,0r0,108r-74,0r0,473r190,0","w":593},"M":{"d":"406,0r-210,-586r0,473r72,0r0,113r-252,0r0,-113r72,0r0,-473r-72,0r0,-108r289,0r152,428r157,-428r305,0r0,108r-72,0r0,473r72,0r0,113r-308,0r0,-113r72,0r0,-473r-214,586r-63,0","w":934},"N":{"d":"213,-523r4,410r76,0r0,113r-277,0r0,-113r77,0r0,-473r-77,0r0,-108r271,0r257,449r-5,-341r-76,0r0,-108r277,0r0,108r-77,0r0,586r-149,0","w":752},"O":{"d":"397,-706v133,0,215,62,255,102v86,87,100,196,100,258v0,61,-13,170,-101,258v-54,54,-137,102,-260,102v-86,0,-182,-24,-259,-101v-88,-89,-102,-195,-102,-259v0,-65,12,-169,101,-257v79,-79,182,-103,266,-103xm391,-111v89,0,175,-76,175,-238v0,-162,-86,-238,-175,-238v-89,0,-175,76,-175,238v0,162,86,238,175,238","w":782},"P":{"d":"259,-586r0,216r32,0v58,0,140,-7,140,-108v0,-101,-79,-108,-140,-108r-32,0xm259,-113r74,0r0,113r-317,0r0,-113r74,0r0,-473r-74,0r0,-108r328,0v207,0,265,88,265,216v0,98,-30,221,-265,221r-85,0r0,144","w":637},"Q":{"d":"291,2v-163,-45,-261,-177,-261,-348v0,-85,23,-181,101,-257v98,-96,213,-103,263,-103v64,0,168,12,257,101v77,78,101,175,101,259v0,180,-108,318,-283,353v49,29,99,40,134,40v18,0,39,-3,53,-5r-35,109v-11,5,-23,8,-39,8v-31,0,-64,-8,-88,-18r-50,-21v-34,-14,-76,-33,-112,-33v-9,0,-54,1,-97,41r-53,-65v47,-48,91,-58,109,-61xm391,-111v89,0,175,-76,175,-238v0,-162,-86,-238,-175,-238v-89,0,-175,76,-175,238v0,162,86,238,175,238","w":782},"R":{"d":"259,-586r0,170r48,0v41,0,124,1,124,-85v0,-85,-84,-85,-127,-85r-45,0xm259,-113r74,0r0,113r-317,0r0,-113r74,0r0,-473r-74,0r0,-108r328,0v111,0,265,14,265,195v0,27,-4,138,-118,165r112,221r79,0r0,113r-194,0r-157,-306r-72,0r0,193","w":671},"S":{"d":"56,0r0,-238r111,0v-4,85,50,135,119,135v56,0,93,-29,93,-74v0,-53,-44,-78,-98,-104r-99,-48v-56,-27,-134,-73,-134,-184v0,-113,81,-193,202,-193v31,0,89,6,150,53r0,-41r112,0r0,206r-112,0v0,-59,-39,-109,-107,-109v-55,0,-78,35,-78,69v0,45,38,66,74,82r91,41v85,38,168,98,168,216v0,121,-84,204,-209,204v-31,0,-108,-5,-172,-59r0,44r-111,0","w":589},"T":{"d":"486,-113r0,113r-361,0r0,-113r96,0r0,-473r-97,0r0,162r-112,0r0,-270r588,0r0,270r-112,0r0,-162r-98,0r0,473r96,0","w":611},"U":{"d":"86,-586r-76,0r0,-108r316,0r0,108r-69,0r0,316v0,53,4,160,99,160v96,0,101,-107,101,-160r0,-316r-68,0r0,-108r304,0r0,108r-76,0r0,299v0,97,-7,147,-32,191v-57,100,-171,110,-234,110v-63,0,-174,-10,-232,-110v-26,-45,-33,-97,-33,-191r0,-299","w":704},"V":{"d":"252,0r-199,-586r-68,0r0,-108r305,0r0,108r-63,0r105,362r109,-362r-75,0r0,-108r296,0r0,108r-65,0r-200,586r-145,0","w":653},"W":{"d":"313,-217r101,-369r-57,0r0,-108r242,0r0,108r-57,0r101,369r101,-369r-57,0r0,-108r262,0r0,108r-61,0r-186,586r-133,0r-99,-356r-97,356r-134,0r-186,-586r-63,0r0,-108r284,0r0,108r-59,0","w":942},"X":{"d":"-33,0r0,-113r92,0r171,-245r-159,-228r-77,0r0,-108r320,0r0,108r-61,0r89,125r87,-125r-50,0r0,-108r272,0r0,108r-75,0r-162,231r169,242r90,0r0,113r-338,0r0,-113r67,0r-99,-141r-100,141r60,0r0,113r-296,0","w":653},"Y":{"d":"468,-113r0,113r-349,0r0,-113r90,0r0,-194r-167,-279r-77,0r0,-108r317,0r0,108r-61,0r92,155r93,-155r-59,0r0,-108r287,0r0,108r-78,0r-178,296r0,177r90,0","w":600},"Z":{"d":"17,0r0,-113r319,-472r-184,0r0,122r-113,0r0,-231r511,0r0,100r-323,481r217,0r0,-144r113,0r0,257r-540,0","w":588},"\u0431":{"d":"535,-746r0,124v-31,4,-104,15,-153,21v-58,7,-103,12,-139,25v-37,13,-64,33,-83,64v-19,30,-29,72,-30,111r4,0v37,-59,100,-93,177,-93v67,0,125,24,165,59v53,47,73,107,73,180v0,91,-30,155,-64,193v-60,67,-140,76,-194,76v-94,0,-166,-28,-215,-100v-49,-72,-54,-166,-54,-236v0,-81,5,-171,44,-245v18,-34,50,-78,105,-107v40,-21,94,-34,178,-48v60,-10,118,-18,186,-24xm291,-376v-39,0,-67,17,-88,46v-20,28,-24,57,-24,85v0,26,3,71,30,104v15,18,40,36,80,36v41,0,67,-15,86,-45v20,-30,24,-62,24,-94v0,-32,-4,-66,-33,-98v-21,-24,-45,-34,-75,-34","w":564},"\u0432":{"d":"18,-494r319,0v31,0,153,4,153,120v0,55,-28,101,-86,109r0,4v103,13,103,102,103,118v0,57,-18,143,-209,143r-280,0r0,-109r65,0r0,-279r-65,0r0,-106xm232,-395r0,102r59,0v32,0,56,-19,56,-49v0,-49,-38,-53,-61,-53r-54,0xm232,-205r0,106r55,0v25,0,68,-4,68,-50v0,-56,-54,-56,-66,-56r-57,0"},"\u0433":{"d":"17,-494r448,0r0,184r-107,0r0,-78r-127,0r0,279r70,0r0,109r-284,0r0,-109r65,0r0,-279r-65,0r0,-106","w":478},"\u0434":{"d":"560,-388r-70,0r0,279r70,0r0,224r-105,0r0,-115r-341,0r0,115r-105,0r0,-222r56,0v61,-71,74,-149,74,-239r0,-42r-55,0r0,-106r476,0r0,106xm341,-388r-81,0r0,27v0,88,-1,171,-58,252r139,0r0,-279","w":578},"\u0451":{"d":"97,-624v0,-45,33,-77,76,-77v45,0,78,33,78,76v0,44,-34,77,-78,77v-43,0,-76,-32,-76,-76xm302,-624v0,-45,33,-77,76,-77v45,0,78,33,78,76v0,44,-34,77,-78,77v-43,0,-76,-32,-76,-76xm181,-219v1,45,22,123,118,123v47,0,87,-22,109,-66r116,37v-61,136,-210,139,-241,139v-152,0,-255,-101,-255,-260v0,-157,101,-260,254,-260v168,0,255,117,255,281r0,6r-356,0xm182,-303r197,0v-3,-52,-39,-94,-98,-94v-57,0,-96,38,-99,94","w":567},"\u0436":{"d":"278,-109r60,0r0,-279r-45,0r0,-106r227,0r0,106r-45,0r0,279r60,0r0,109r-257,0r0,-109xm565,-494r225,0r0,106r-50,0r-118,125r112,154r64,0r0,109r-145,0r-175,-249r128,-139r-41,0r0,-106xm335,-249r-128,-139r41,0r0,-106r-225,0r0,106r50,0r118,125r-112,154r-64,0r0,109r145,0","w":813},"\u0437":{"d":"43,-494r104,0r0,37v44,-39,97,-49,132,-49v39,0,85,11,116,34v31,23,50,58,50,106v0,18,-3,43,-24,65v-15,17,-39,29,-65,33r1,6v31,5,52,21,64,33v21,22,32,51,32,85v0,68,-38,105,-65,123v-14,9,-61,35,-153,35v-69,0,-109,-18,-132,-31v-30,-18,-65,-51,-83,-104r111,-42v16,42,53,71,97,71v24,0,45,-9,56,-22v8,-9,12,-22,12,-35v0,-27,-18,-54,-59,-54r-46,0r0,-95r35,0v39,0,66,-17,66,-55v0,-33,-24,-49,-52,-49v-54,0,-83,40,-94,67r-103,0r0,-159","w":471},"\u0438":{"d":"587,-388r-65,0r0,279r65,0r0,109r-262,0r0,-109r65,0r9,-236r-181,345r-201,0r0,-109r65,0r0,-279r-65,0r0,-106r262,0r0,106r-65,0r-6,223r173,-329r206,0r0,106","w":604},"\u0439":{"d":"587,-388r-65,0r0,279r65,0r0,109r-262,0r0,-109r65,0r9,-236r-181,345r-201,0r0,-109r65,0r0,-279r-65,0r0,-106r262,0r0,106r-65,0r-6,223r173,-329r206,0r0,106xm375,-707r135,11v-7,75,-57,138,-199,138v-142,0,-192,-63,-199,-138r135,-11v2,33,25,60,64,60v39,0,62,-27,64,-60","w":604},"\u043a":{"d":"233,-109r64,0r0,109r-279,0r0,-109r65,0r0,-279r-65,0r0,-106r266,0r0,106r-51,0r0,279xm236,-251r162,-137r-54,0r0,-106r242,0r0,106r-54,0r-142,119r136,160r60,0r0,109r-146,0","w":602},"\u043b":{"d":"586,0r-283,0r0,-109r64,0r0,-279r-105,0r0,90v0,164,-11,312,-187,312v-23,0,-46,-3,-66,-8r4,-104v10,2,18,2,26,2v92,0,95,-102,95,-182r0,-16r0,-94r-65,0r0,-106r517,0r0,104r-70,0r0,281r70,0r0,109","w":603},"\u043c":{"d":"490,-494r269,0r0,106r-65,0r0,275r65,0r0,113r-267,0r0,-109r60,0r0,-265r-2,0r-147,374r-54,0r-151,-376r-3,0r0,267r60,0r0,109r-236,0r0,-109r65,0r0,-279r-65,0r0,-106r277,0r98,261","w":778},"\u043d":{"d":"575,-388r-70,0r0,279r70,0r0,109r-219,0r0,-213r-125,0r0,104r70,0r0,109r-284,0r0,-109r65,0r0,-279r-65,0r0,-106r214,0r0,190r125,0r0,-84r-63,0r0,-106r282,0r0,106","w":592},"\u043f":{"d":"574,0r-284,0r0,-109r65,0r0,-276r-122,0r0,385r-216,0r0,-109r60,0r0,-276r-60,0r0,-109r557,0r0,109r-70,0r0,276r70,0r0,109","w":591},"\u0442":{"d":"519,-299r-99,0r0,-89r-75,0r0,279r70,0r0,109r-289,0r0,-109r70,0r0,-279r-75,0r0,85r-99,0r0,-191r497,0r0,195","w":541},"\u0444":{"d":"443,-700r0,206v21,-8,42,-12,72,-12v132,0,209,107,209,253v0,129,-61,267,-212,267v-26,0,-46,-3,-68,-14r0,59r65,0r0,113r-279,0r0,-113r65,0r0,-59v-19,9,-40,14,-69,14v-127,0,-212,-106,-212,-267v0,-146,77,-253,209,-253v30,0,51,4,72,12r0,-100r-75,0r0,-106r223,0xm443,-108v10,7,20,10,37,10v15,0,92,-4,92,-156v0,-80,-22,-146,-92,-146v-4,0,-19,1,-37,7r0,285xm295,-108r0,-285v-18,-6,-33,-7,-37,-7v-70,0,-92,66,-92,146v0,152,77,156,92,156v17,0,27,-3,37,-10","w":738},"\u0446":{"d":"497,-109r77,0r0,217r-107,0r0,-108r-467,0r0,-109r65,0r0,-279r-65,0r0,-106r214,0r0,385r126,0r0,-279r-65,0r0,-106r292,0r0,106r-70,0r0,279","w":574},"\u0447":{"d":"565,-388r-70,0r0,278r70,0r0,110r-294,0r0,-111r75,0r0,-88v-33,6,-74,10,-112,10v-40,0,-92,-5,-125,-40v-34,-36,-32,-82,-32,-111r0,-48r-65,0r0,-106r214,0r0,127v0,34,5,72,70,72v18,0,34,-2,50,-5r0,-88r-60,0r0,-106r279,0r0,106","w":583},"\u0448":{"d":"569,-494r284,0r0,106r-70,0r0,279r70,0r0,109r-834,0r0,-109r65,0r0,-279r-65,0r0,-106r214,0r0,385r126,0r0,-279r-65,0r0,-106r214,0r0,385r126,0r0,-279r-65,0r0,-106","w":872},"\u0449":{"d":"863,-109r0,226r-107,0r0,-117r-737,0r0,-109r65,0r0,-279r-65,0r0,-106r214,0r0,385r126,0r0,-279r-65,0r0,-106r214,0r0,385r126,0r0,-279r-65,0r0,-106r284,0r0,106r-70,0r0,279r80,0","w":882},"\u044a":{"d":"423,-388r-84,0r0,86r109,0v84,0,163,40,163,146v0,113,-75,156,-212,156r-279,0r0,-109r70,0r0,-279r-80,0r0,116r-96,0r0,-222r409,0r0,106xm339,-207r0,98r63,0v7,0,57,0,57,-50v0,-47,-46,-48,-61,-48r-59,0","w":625},"\u044b":{"d":"827,0r-289,0r0,-109r70,0r0,-279r-70,0r0,-106r289,0r0,106r-70,0r0,279r70,0r0,109xm313,-388r-75,0r0,86r104,0v84,0,163,40,163,146v0,113,-75,156,-212,156r-274,0r0,-109r70,0r0,-279r-70,0r0,-106r294,0r0,106xm238,-207r0,98r58,0v7,0,57,0,57,-50v0,-47,-46,-48,-61,-48r-54,0","w":846},"\u044c":{"d":"312,-388r-75,0r0,86r104,0v84,0,163,40,163,146v0,113,-75,156,-212,156r-274,0r0,-109r70,0r0,-279r-70,0r0,-106r294,0r0,106xm237,-207r0,98r58,0v7,0,57,0,57,-50v0,-47,-46,-48,-61,-48r-54,0","w":517},"\u044d":{"d":"155,-494r0,32v15,-15,49,-44,123,-44v120,0,240,87,240,258v0,137,-78,262,-258,262v-149,0,-213,-78,-241,-140r110,-53v23,47,67,76,123,76v59,0,111,-39,113,-101r-152,0r0,-101r152,0v-6,-37,-32,-86,-105,-86v-23,0,-76,5,-103,59r-108,0r0,-162r106,0","w":533},"\u044e":{"d":"238,-308r59,0v10,-62,41,-109,72,-138v55,-50,121,-60,169,-60v56,0,135,12,194,79v49,56,59,124,59,177v0,81,-25,138,-57,178v-40,49,-102,86,-196,86v-79,0,-143,-26,-190,-83v-26,-31,-49,-76,-53,-135r-57,0r0,95r43,0r0,109r-262,0r0,-109r70,0r0,-279r-70,0r0,-106r267,0r0,106r-48,0r0,80xm641,-245v0,-48,-14,-83,-34,-105v-19,-20,-41,-29,-69,-29v-39,0,-66,16,-84,47v-17,29,-19,60,-19,87v0,29,3,67,26,98v18,23,42,37,77,37v35,0,63,-11,83,-47v13,-24,20,-56,20,-88","w":806},"\u044f":{"d":"536,0r-219,0r0,-182r-46,0r-101,182r-162,0r0,-109r75,0r53,-91v-74,-19,-104,-80,-104,-145v0,-52,19,-92,62,-119v42,-27,99,-30,139,-30r303,0r0,96r-70,0r0,289r70,0r0,109xm317,-398r-72,0v-37,0,-60,24,-60,55v0,33,25,56,58,56r74,0r0,-111","w":553},"\u0411":{"d":"261,-417r113,0v223,0,230,172,230,206v0,144,-97,211,-213,211r-373,0r0,-113r74,0r0,-473r-74,0r0,-108r543,0r0,217r-125,0r0,-109r-175,0r0,169xm261,-309r0,196r58,0v13,0,107,0,107,-93v0,-29,-5,-103,-110,-103r-55,0","w":624},"\u0413":{"d":"261,-113r85,0r0,113r-328,0r0,-113r74,0r0,-473r-74,0r0,-108r549,0r0,214r-122,0r0,-106r-184,0r0,473","w":583},"\u0414":{"d":"612,-113r92,0r0,253r-122,0r0,-140r-448,0r0,140r-122,0r0,-253r77,0v62,-111,75,-224,75,-372r0,-101r-74,0r0,-108r596,0r0,108r-74,0r0,473xm443,-586r-138,0r0,91v0,161,-12,268,-63,382r201,0r0,-473","w":722},"\u0401":{"d":"475,-113r0,-114r125,0r0,227r-582,0r0,-113r74,0r0,-473r-74,0r0,-108r582,0r0,215r-125,0r0,-107r-214,0r0,170r177,0r0,114r-177,0r0,189r214,0xm140,-821v0,-45,33,-77,76,-77v45,0,78,33,78,76v0,44,-34,77,-78,77v-43,0,-76,-32,-76,-76xm345,-821v0,-45,33,-77,76,-77v45,0,78,33,78,76v0,44,-34,77,-78,77v-43,0,-76,-32,-76,-76","w":638},"\u0416":{"d":"366,0r0,-113r58,0r0,-473r-58,0r0,-108r276,0r0,108r-58,0r0,473r58,0r0,113r-276,0xm698,0r0,-113r57,0r-167,-254r176,-219r-56,0r0,-108r267,0r0,108r-58,0r-166,200r187,273r70,0r0,113r-310,0xm310,0r-310,0r0,-113r70,0r187,-273r-166,-200r-58,0r0,-108r267,0r0,108r-56,0r176,219r-167,254r57,0r0,113","w":1008},"\u0417":{"d":"161,-480r-116,0r0,-214r111,0r0,55v19,-20,70,-67,168,-67v63,0,118,20,153,55v32,32,46,74,46,125v0,30,-5,62,-26,93v-19,27,-50,51,-89,62r0,5v31,7,63,24,85,48v25,28,44,73,44,129v0,86,-44,133,-74,155v-53,40,-123,48,-180,48v-183,0,-243,-105,-263,-149r113,-75v15,37,52,91,125,91v19,0,52,-3,76,-29v14,-15,24,-37,24,-65v0,-40,-21,-59,-36,-68v-8,-4,-27,-13,-67,-13r-66,0r0,-116r50,0v56,0,86,-24,89,-27v11,-10,29,-30,29,-65v0,-23,-7,-43,-27,-58v-16,-12,-37,-17,-57,-17v-63,0,-100,49,-112,97","w":564},"\u0418":{"d":"662,-113r74,0r0,113r-309,0r0,-113r74,0r10,-357r-279,470r-214,0r0,-118r74,0r0,-468r-74,0r0,-108r309,0r0,108r-74,0r-10,370r286,-478r207,0r0,108r-74,0r0,473","w":754},"\u0419":{"d":"662,-113r74,0r0,113r-309,0r0,-113r74,0r10,-357r-279,470r-214,0r0,-118r74,0r0,-468r-74,0r0,-108r309,0r0,108r-74,0r-10,370r286,-478r207,0r0,108r-74,0r0,473xm434,-904r135,13v-3,63,-39,143,-199,143v-160,0,-196,-80,-199,-143r135,-13v2,33,25,60,64,60v39,0,62,-27,64,-60","w":754},"\u041b":{"d":"699,-113r0,113r-317,0r0,-113r74,0r0,-473r-144,0r0,166v0,357,-69,434,-217,434v-33,0,-57,-2,-83,-8r0,-121v11,2,22,3,32,3v125,0,127,-138,127,-274r0,-16r0,-184r-74,0r0,-108r602,0r0,108r-74,0r0,473r74,0","w":717},"\u041f":{"d":"18,0r0,-113r74,0r0,-473r-74,0r0,-108r685,0r0,108r-74,0r0,473r74,0r0,113r-306,0r0,-113r63,0r0,-473r-199,0r0,473r64,0r0,113r-307,0","w":721},"\u0423":{"d":"707,-586r-70,0r-277,586r-234,0r0,-113r138,0r23,-48r-200,-425r-77,0r0,-108r319,0r0,108r-61,0r110,256r111,-256r-70,0r0,-108r288,0r0,108","w":707},"\u0424":{"d":"492,-588r38,0v71,0,145,8,204,67v49,48,60,108,60,162v0,79,-27,148,-99,192v-62,38,-139,41,-171,41r-32,0r0,54r72,0r0,90r-322,0r0,-90r72,0r0,-54r-32,0v-32,0,-109,-3,-171,-41v-72,-44,-99,-113,-99,-192v0,-54,11,-114,60,-162v59,-59,133,-67,204,-67r38,0r0,-44r-72,0r0,-91r322,0r0,91r-72,0r0,44xm489,-495r0,276r15,0v51,0,81,-40,85,-46v22,-30,25,-64,25,-88v0,-35,-8,-70,-27,-97v-16,-23,-43,-45,-85,-45r-13,0xm317,-495r-13,0v-42,0,-69,22,-85,45v-19,27,-27,62,-27,97v0,24,3,58,25,88v4,6,34,46,85,46r15,0r0,-276","w":806},"\u0426":{"d":"697,-585r-74,0r0,472r90,0r0,260r-122,0r0,-147r-574,0r0,-113r74,0r0,-474r-74,0r0,-107r307,0r0,107r-64,0r0,474r194,0r0,-473r-64,0r0,-108r307,0r0,109","w":731},"\u0427":{"d":"580,-113r74,0r0,113r-321,0r0,-113r78,0r0,-173v-21,4,-74,12,-135,12v-187,0,-202,-100,-202,-168r0,-144r-64,0r0,-108r285,0r0,108r-60,0r0,112v0,75,59,81,98,81v29,0,54,-2,78,-6r0,-187r-60,0r0,-108r303,0r0,108r-74,0r0,473","w":672},"\u0428":{"d":"647,-694r313,0r0,108r-74,0r0,473r74,0r0,113r-941,0r0,-113r74,0r0,-473r-74,0r0,-108r243,0r0,581r145,0r0,-473r-70,0r0,-108r239,0r0,581r141,0r0,-473r-70,0r0,-108","w":979},"\u0429":{"d":"987,153r-122,0r0,-153r-846,0r0,-113r74,0r0,-473r-74,0r0,-108r243,0r0,581r145,0r0,-473r-70,0r0,-108r239,0r0,581r141,0r0,-473r-70,0r0,-108r314,0r0,108r-75,0r0,473r101,0r0,266","w":1007},"\u042a":{"d":"476,-586r-82,0r0,165r122,0v46,0,115,8,166,59v41,41,53,92,53,150v0,35,-4,106,-56,156v-56,53,-139,56,-186,56r-348,0r0,-113r80,0r0,-473r-88,0r0,108r-120,0r0,-216r459,0r0,108xm394,-310r0,197r68,0v60,0,96,-40,96,-99v0,-57,-31,-98,-87,-98r-77,0","w":751},"\u042b":{"d":"935,0r-317,0r0,-113r74,0r0,-473r-74,0r0,-108r317,0r0,108r-74,0r0,473r74,0r0,113xm336,-586r-74,0r0,165r116,0v46,0,115,8,166,59v41,41,53,92,53,150v0,35,-4,106,-56,156v-56,53,-139,56,-186,56r-336,0r0,-113r74,0r0,-473r-74,0r0,-108r317,0r0,108xm262,-310r0,197r62,0v60,0,96,-40,96,-99v0,-57,-31,-98,-87,-98r-71,0","w":954},"\u042c":{"d":"18,-113r74,0r0,-473r-74,0r0,-108r317,0r0,108r-74,0r0,165r122,0v46,0,115,8,166,59v41,41,53,92,53,150v0,35,-4,106,-56,156v-56,53,-139,56,-186,56r-342,0r0,-113xm261,-310r0,197r68,0v60,0,96,-40,96,-99v0,-57,-31,-98,-87,-98r-77,0","w":619},"\u042d":{"d":"153,-454r-103,0r0,-240r103,0r0,74v45,-49,109,-86,215,-86v82,0,174,22,251,99v56,56,101,138,101,259v0,123,-47,206,-103,261v-77,77,-174,101,-265,101v-43,0,-260,-7,-335,-240r122,-59v21,73,83,175,204,175v63,0,121,-27,156,-82v21,-33,31,-72,32,-108r-245,0r0,-117r246,0v-6,-42,-26,-86,-55,-117v-27,-29,-71,-54,-131,-54v-114,0,-173,93,-193,134","w":738},"\u042e":{"d":"337,-694r0,108r-74,0r0,164r80,0v9,-78,44,-149,89,-194v47,-47,126,-90,250,-90v90,0,196,19,273,116v43,55,74,131,74,235v0,140,-49,230,-102,282v-75,74,-160,87,-238,87v-74,0,-183,-10,-268,-109v-17,-20,-75,-93,-80,-210r-78,0r0,192r74,0r0,113r-318,0r0,-113r75,0r-1,-473r-74,0r0,-108r318,0xm686,-111v55,0,100,-24,129,-82v26,-52,31,-123,31,-161v0,-48,-7,-103,-28,-146v-40,-81,-108,-87,-132,-87v-39,0,-96,16,-132,86v-24,46,-30,105,-30,154v0,41,4,112,35,163v21,35,60,73,127,73","w":1047},"\u042f":{"d":"657,0r-312,0r0,-113r69,0r0,-185r-49,0r-176,298r-178,0r0,-117r88,0r119,-196v-47,-9,-77,-34,-94,-51v-36,-37,-51,-83,-51,-136v0,-66,23,-112,58,-144v46,-42,101,-50,143,-50r383,0r0,108r-74,0r0,473r74,0r0,113xm418,-405r0,-181r-70,0v-58,0,-97,35,-97,88v0,50,32,93,99,93r68,0","w":675},"1":{"d":"92,0r0,-109r94,0r0,-482r-94,0r0,-103r244,0r0,585r86,0r0,109r-330,0"},"2":{"d":"32,0v-1,-10,-1,-20,-1,-30v0,-95,27,-169,90,-241v61,-70,129,-118,168,-175v18,-26,27,-57,27,-85v0,-46,-23,-71,-65,-71v-50,0,-76,44,-76,131r0,15r-129,0v-1,-11,-1,-22,-1,-32v0,-136,83,-218,221,-218v125,0,202,71,202,179v0,100,-54,149,-143,219v-85,67,-145,116,-154,199r189,0r0,-100r108,0r0,209r-436,0"},"3":{"d":"157,-234v3,89,30,131,88,131v53,0,85,-40,85,-107v0,-74,-39,-109,-122,-109r0,-108r3,0v73,0,110,-33,110,-96v0,-51,-23,-79,-66,-79v-44,0,-70,34,-76,99r-117,0v0,-126,77,-203,203,-203v120,0,197,74,197,183v0,76,-39,127,-117,153v91,23,137,80,137,173v0,124,-91,211,-226,211v-143,0,-223,-81,-223,-229r0,-19r124,0"},"4":{"d":"212,0r0,-109r72,0r0,-76r-256,0v-5,-29,-14,-56,-27,-83r301,-438r117,0r0,422r77,0r0,99r-77,0r0,76r71,0r0,109r-278,0xm287,-279r4,-259r-177,259r173,0"},"5":{"d":"152,-204v6,69,37,107,88,107v58,0,95,-47,95,-129v0,-76,-36,-121,-87,-121v-35,0,-61,20,-86,60r-112,-53r26,-354r381,0r0,170r-102,0r-8,-62r-171,0r-12,170v43,-27,84,-40,127,-40v115,0,199,89,199,225v0,152,-91,245,-237,245v-135,0,-220,-75,-231,-203"},"6":{"d":"363,-508v-12,-65,-35,-96,-78,-96v-59,0,-97,64,-97,187r0,18v42,-31,82,-47,125,-47v105,0,180,84,180,219v0,146,-92,241,-219,241v-145,0,-238,-129,-238,-360v0,-234,90,-360,247,-360v113,0,184,64,197,180xm191,-308r0,10v0,128,37,195,88,195v46,0,75,-41,75,-114v0,-77,-33,-120,-87,-120v-25,0,-50,10,-76,29"},"7":{"d":"79,0r0,-109r88,0r0,-6v0,-132,66,-283,189,-470r-209,0r0,101r-107,0r0,-210r448,0r0,93v-107,163,-163,321,-169,492r87,0r0,109r-327,0"},"8":{"d":"363,-367v88,29,134,93,134,181v0,115,-94,200,-236,200v-144,0,-238,-85,-238,-200v0,-88,47,-152,135,-181v-77,-25,-118,-81,-118,-158v0,-104,86,-181,220,-181v134,0,221,77,221,181v0,77,-41,133,-118,158xm180,-508v0,56,35,97,80,97v44,0,81,-41,81,-97v0,-56,-36,-96,-81,-96v-46,0,-80,40,-80,96xm168,-201v0,62,41,107,92,107v51,0,93,-46,93,-107v0,-61,-40,-106,-93,-106v-52,0,-92,46,-92,106"},"9":{"d":"157,-184v12,65,35,96,78,96v59,0,96,-64,96,-186r0,-19v-42,31,-82,47,-125,47v-105,0,-179,-84,-179,-219v0,-146,91,-241,218,-241v145,0,239,129,239,360v0,234,-91,360,-248,360v-113,0,-183,-64,-196,-180xm328,-384r0,-10v0,-128,-36,-195,-87,-195v-46,0,-76,41,-76,114v0,77,33,120,87,120v25,0,50,-10,76,-29"},"0":{"d":"492,-337v0,224,-92,351,-232,351v-142,0,-231,-127,-231,-360v0,-233,89,-360,231,-360v145,0,232,128,232,369xm260,-95v46,0,79,-86,79,-253v0,-167,-32,-253,-79,-253v-47,0,-78,86,-78,253v0,167,32,253,78,253"},".":{"d":"54,0r0,-162r152,0r0,162r-152,0","w":260},",":{"d":"47,166r0,-75v51,-8,73,-32,73,-79r0,-12r-68,0r0,-162r153,0r0,145v0,122,-46,179,-158,183","w":260},":":{"d":"65,0r0,-162r153,0r0,162r-153,0xm65,-332r0,-162r153,0r0,162r-153,0","w":284},";":{"d":"65,-332r0,-162r153,0r0,162r-153,0xm63,166r0,-75v51,-8,72,-32,72,-79r0,-12r-67,0r0,-162r152,0r0,145v0,122,-45,179,-157,183","w":284},"!":{"d":"67,0r0,-162r153,0r0,162r-153,0xm106,-242r-37,-252r0,-200r149,0r0,200r-38,252r-74,0","w":287},"?":{"d":"158,0r0,-162r153,0r0,162r-153,0xm199,-237r-10,-188v16,4,33,7,50,7v64,0,99,-32,99,-89v0,-57,-36,-94,-92,-94v-52,0,-87,37,-87,98v0,5,1,10,1,15r-139,0r0,-11v0,-123,95,-207,238,-207v141,0,233,86,233,210v0,108,-72,179,-191,179r-14,0r-16,80r-72,0","w":519},"\u2026":{"d":"-2,0r0,-162r152,0r0,162r-152,0xm331,0r0,-162r152,0r0,162r-152,0xm665,0r0,-162r152,0r0,162r-152,0","w":1000},"\u2022":{"d":"150,-372v0,-80,65,-144,145,-144v79,0,144,64,144,144v0,79,-65,145,-145,145v-80,0,-144,-65,-144,-145","w":590},"*":{"d":"378,-633r25,79r-107,30r69,88r-67,48r-62,-92r-61,92r-67,-49r68,-87r-107,-31r26,-78r103,38r-4,-111r83,0r-4,111","w":472},"\u2020":{"d":"235,116r0,-456r-83,0r0,60r-98,0r0,-229r98,0r0,62r83,0r0,-155r-64,0r0,-92r246,0r0,92r-64,0r0,155r83,0r0,-62r98,0r0,229r-98,0r0,-60r-83,0r0,456r-118,0","w":588},"'":{"d":"39,-702r94,0r0,273r-94,0r0,-273","w":172},"\"":{"d":"39,-702r94,0r0,273r-94,0r0,-273xm198,-702r94,0r0,273r-94,0r0,-273","w":331},"\u201e":{"d":"51,166r0,-75v51,-8,72,-32,72,-79r0,-12r-67,0r0,-162r152,0r0,145v0,122,-45,179,-157,183xm266,166r0,-75v51,-8,72,-32,72,-79r0,-12r-67,0r0,-162r153,0r0,145v0,122,-46,179,-158,183","w":483},"\u201c":{"d":"213,-706r0,75v-51,8,-72,32,-72,79r0,12r67,0r0,162r-152,0r0,-146v0,-122,45,-178,157,-182xm428,-706r0,75v-51,8,-72,32,-72,79r0,12r68,0r0,162r-153,0r0,-146v0,-122,45,-178,157,-182","w":483},"\u201d":{"d":"57,-367r0,-75v51,-8,72,-31,72,-78r0,-12r-67,0r0,-162r153,0r0,145v0,122,-46,178,-158,182xm272,-367r0,-75v51,-8,73,-31,73,-78r0,-12r-68,0r0,-162r153,0r0,145v0,122,-46,178,-158,182","w":483},"\u2018":{"d":"209,-706r0,75v-51,8,-72,32,-72,79r0,12r68,0r0,162r-153,0r0,-146v0,-122,45,-178,157,-182","w":260},"\u2019":{"d":"54,-367r0,-75v51,-8,72,-31,72,-78r0,-12r-68,0r0,-162r153,0r0,145v0,122,-45,178,-157,182","w":260},"\u00ab":{"d":"259,-399r-126,152r126,153r-104,0r-127,-153r127,-152r104,0xm434,-399r-126,152r126,153r-104,0r-127,-153r127,-152r104,0","w":462},"\u00bb":{"d":"25,-94r127,-153r-127,-152r105,0r127,152r-127,153r-105,0xm200,-94r126,-153r-126,-152r104,0r128,152r-128,153r-104,0","w":462},"[":{"d":"272,53r131,0r0,95r-273,0r0,-842r273,0r0,94r-131,0r0,653","w":426},"]":{"d":"154,-600r-132,0r0,-94r274,0r0,842r-274,0r0,-95r132,0r0,-653","w":426},"{":{"d":"431,-721r0,102v-8,0,-16,-1,-23,-1v-72,0,-84,25,-84,98r0,117v0,88,-18,127,-101,146v83,19,101,57,101,145r0,118v0,73,12,97,84,97v7,0,15,-1,23,-1r0,102v-13,0,-25,1,-37,1v-60,0,-104,-6,-137,-24v-47,-27,-51,-71,-51,-142r0,-123v0,-88,-29,-123,-109,-123v-6,0,-13,1,-20,1r0,-102v7,0,14,1,20,1v80,0,109,-36,109,-124r0,-122v0,-71,4,-116,51,-143v33,-18,77,-24,137,-24v12,0,24,1,37,1","w":500},"}":{"d":"70,-721r33,0v62,0,108,5,141,24v46,26,51,71,51,142r0,123v0,88,29,123,109,123v6,0,13,-1,20,-1r0,102r-18,0v-82,0,-111,33,-111,122r0,123v0,71,-4,116,-51,142v-33,18,-77,24,-137,24v-12,0,-24,-1,-37,-1r0,-102v8,0,16,1,23,1v71,0,84,-24,84,-97r0,-117v0,-88,17,-127,101,-146v-83,-19,-101,-58,-101,-146r0,-118v0,-73,-13,-97,-84,-97v-7,0,-15,1,-23,1r0,-102","w":500},"(":{"d":"374,-609v-82,54,-119,163,-119,333v0,171,37,282,119,335r0,98v-169,-53,-267,-207,-267,-432v0,-225,99,-379,267,-431r0,97","w":426},")":{"d":"52,60v82,-54,118,-163,118,-333v0,-171,-36,-282,-118,-335r0,-98v169,53,267,207,267,432v0,225,-99,379,-267,431r0,-97","w":426},"\u2013":{"d":"500,-307r0,111r-500,0r0,-111r500,0","w":500},"\u2014":{"d":"0,-196r0,-111r1000,0r0,111r-1000,0","w":1000},"_":{"d":"0,136r500,0r0,100r-500,0r0,-100","w":500},"\u00ac":{"d":"124,-422r585,0r0,245r-97,0r0,-149r-488,0r0,-96","w":833},"\/":{"d":"76,93r-82,0r274,-799r82,0","w":319},"\\":{"d":"268,93r-274,-799r82,0r274,799r-82,0","w":319},"|":{"d":"200,-764r101,0r0,1000r-101,0r0,-1000","w":500},"#":{"d":"346,-715r108,0r-71,203r118,0r72,-203r108,0r-72,203r138,0r-36,98r-137,0r-41,118r142,0r-35,98r-142,0r-72,203r-108,0r72,-203r-119,0r-73,203r-107,0r71,-203r-140,0r37,-98r138,0r42,-118r-146,0r36,-98r145,0xm346,-414r-43,118r123,0r42,-118r-122,0","w":769},"\u2116":{"d":"213,-523r4,410r76,0r0,113r-277,0r0,-113r77,0r0,-473r-77,0r0,-108r271,0r257,449r-5,-341r-76,0r0,-108r277,0r0,108r-77,0r0,586r-149,0xm940,-307v-101,0,-161,-82,-161,-199v0,-138,80,-200,161,-200v83,0,160,62,160,200v0,117,-58,199,-160,199xm940,-400v29,0,55,-33,55,-106v0,-83,-34,-106,-57,-106v-21,0,-55,19,-55,106v0,94,39,106,57,106xm791,-160r0,-99r303,0r0,99r-303,0","w":1140},"\u00b6":{"d":"480,-722r0,54r-55,0r0,668r-74,0r0,-668r-78,0r0,668r-74,0r0,-383v-111,-4,-179,-73,-179,-169v0,-100,73,-170,191,-170r269,0","w":500},"\u00a7":{"d":"485,-695r0,152r-105,0r0,-69r-26,0v-48,0,-74,7,-74,40v0,16,13,45,38,69r176,172v36,35,56,78,56,111v0,62,-53,113,-138,118v33,31,49,66,49,106v0,77,-52,112,-161,112r-188,0r0,-152r105,0r0,69r39,0v48,0,74,-7,74,-40v0,-16,-13,-45,-38,-69r-193,-187v-39,-38,-59,-76,-59,-111v0,-64,58,-117,146,-117v-24,-26,-36,-56,-36,-92v0,-77,53,-112,161,-112r174,0xm178,-379v0,20,27,58,85,112v57,54,94,84,117,84v24,0,39,-15,39,-33v0,-24,-30,-58,-85,-111v-57,-55,-94,-85,-118,-85v-24,0,-38,15,-38,33","w":588},"^":{"d":"438,-713r123,0r235,274r-115,0r-181,-181r-182,181r-115,0","w":1000},"~":{"d":"747,-392r0,108v-65,44,-124,67,-185,67v-30,0,-60,-5,-90,-15v-69,-23,-130,-49,-197,-49v-59,0,-118,27,-188,77r0,-108v70,-47,133,-70,189,-70v58,0,102,15,144,29v48,16,93,36,144,36v59,0,116,-26,183,-75","w":833},"\u00b0":{"d":"165,-715v82,0,148,67,148,149v0,81,-66,148,-149,148v-82,0,-147,-65,-147,-148v0,-83,66,-149,148,-149xm165,-652v-47,0,-86,38,-86,85v0,48,38,86,86,86v48,0,85,-40,85,-86v0,-47,-38,-85,-85,-85","w":329},"+":{"d":"367,-596r99,0r0,249r243,0r0,97r-243,0r0,250r-99,0r0,-250r-243,0r0,-97r243,0r0,-249","w":833},"\u00b1":{"d":"367,-597r99,0r0,159r243,0r0,97r-243,0r0,159r-99,0r0,-159r-243,0r0,-97r243,0r0,-159xm124,-96r585,0r0,97r-585,0r0,-97","w":833},"\u00f7":{"d":"417,-564v40,0,74,33,74,74v0,40,-32,74,-74,74v-41,0,-74,-33,-74,-74v0,-42,34,-74,74,-74xm124,-347r585,0r0,97r-585,0r0,-97xm417,-180v40,0,74,33,74,74v0,39,-33,73,-74,73v-41,0,-74,-32,-74,-73v0,-42,34,-74,74,-74","w":833},"=":{"d":"124,-452r585,0r0,97r-585,0r0,-97xm124,-242r585,0r0,97r-585,0r0,-97","w":833},"\u2260":{"d":"124,-452r275,0r41,-121r83,0r-41,121r227,0r0,97r-261,0r-38,113r299,0r0,97r-332,0r-43,125r-82,0r42,-125r-170,0r0,-97r203,0r39,-113r-242,0r0,-97","w":833},"\u2248":{"d":"747,-457r0,108v-89,62,-155,67,-185,67v-42,0,-71,-8,-90,-15r-35,-12v-45,-15,-105,-37,-162,-37v-80,0,-156,53,-188,77r0,-108v39,-28,112,-70,189,-70v56,0,113,18,142,28r29,10v37,13,71,27,117,27v70,0,139,-40,183,-75xm747,-237r0,108v-89,62,-155,67,-185,67v-42,0,-71,-8,-90,-15r-35,-12v-45,-15,-105,-37,-162,-37v-80,0,-156,53,-188,77r0,-108v39,-28,112,-70,189,-70v56,0,113,18,142,28r29,10v37,13,71,27,117,27v70,0,139,-40,183,-75","w":834},"<":{"d":"704,-583r0,107r-436,178r436,178r0,107r-575,-237r0,-97","w":833},">":{"d":"129,-583r575,236r0,97r-575,237r0,-107r437,-178r-437,-178r0,-107","w":833},"\u2264":{"d":"704,-654r0,107r-436,178r436,178r0,107r-575,-237r0,-97xm129,-239r575,237r0,107r-575,-237r0,-107","w":833},"\u2265":{"d":"129,-654r575,236r0,97r-575,237r0,-107r436,-178r-436,-178r0,-107xm704,-239r0,107r-575,237r0,-107","w":833},"\u221a":{"d":"5,-479r271,0r149,387r147,-718r192,0r0,99r-114,0r-186,910r-84,0r-245,-597r-130,0r0,-81","w":769},"\u221e":{"d":"30,-295v0,-100,76,-180,181,-180v79,0,135,39,187,104v52,-66,110,-104,184,-104v91,0,183,61,183,180v0,107,-75,180,-178,180v-83,0,-133,-39,-189,-102v-56,63,-105,102,-185,102v-106,0,-183,-79,-183,-180xm130,-296v0,59,42,85,84,85v38,0,80,-26,126,-84v-45,-57,-91,-84,-130,-84v-33,0,-80,22,-80,83xm664,-295v0,-54,-40,-84,-80,-84v-32,0,-76,18,-128,84v52,66,96,84,128,84v46,0,80,-34,80,-84","w":795},"\u0394":{"d":"690,0r-662,0r271,-706r120,0xm359,-542r-159,431r318,0","w":718},"\u00a4":{"d":"84,-702r100,99v33,-24,71,-38,119,-38v45,0,85,12,121,38r99,-99r51,52r-99,100v24,34,37,73,37,118v0,43,-12,82,-37,118r99,100r-51,51r-99,-99v-33,24,-72,38,-120,38v-46,0,-85,-12,-120,-38r-100,99r-51,-51r99,-100v-25,-35,-37,-73,-37,-118v0,-45,13,-84,37,-118r-99,-100xm304,-567v-74,0,-135,62,-135,135v0,74,60,134,135,134v74,0,135,-60,135,-134v0,-73,-61,-135,-135,-135","w":606},"$":{"d":"213,-5v-27,-9,-50,-22,-68,-39r0,44r-107,0r0,-238r107,0r0,57v8,32,33,55,73,74r0,-195r-63,-35v-84,-48,-122,-102,-122,-177v0,-107,66,-174,180,-178r0,-79r65,0r0,80v27,9,49,24,69,41r0,-44r106,0r0,217r-106,0r0,-48v-11,-32,-34,-51,-72,-62r0,163r61,35v103,59,152,121,152,210v0,118,-72,182,-207,182r-3,0r0,101r-65,0r0,-109xm220,-448r0,-146v-39,3,-62,28,-62,66v0,34,20,56,62,80xm274,-274r0,174v53,-5,82,-32,82,-77v0,-42,-26,-70,-82,-97"},"\u00a3":{"d":"245,-47v-36,41,-77,61,-126,61v-65,0,-114,-47,-114,-118v0,-69,49,-119,114,-119v22,0,48,5,78,16v1,-6,1,-13,1,-19v0,-26,-5,-49,-15,-71r-150,0r0,-93r101,0v-34,-63,-52,-114,-52,-155v0,-99,77,-161,209,-161v122,0,188,61,195,182r-110,13v-5,-74,-29,-107,-85,-107v-43,0,-72,29,-72,72v0,38,27,85,58,156r131,0r0,93r-106,0v3,21,4,37,4,50v0,29,-5,60,-16,93v36,14,61,23,78,23v44,0,65,-31,71,-98r74,18v-11,152,-56,225,-143,225v-43,0,-84,-20,-125,-61xm180,-111v-23,-26,-44,-40,-64,-40v-24,0,-38,15,-38,38v0,28,19,47,44,47v23,0,42,-16,58,-45"},"\u0192":{"d":"490,-594v-22,-14,-41,-20,-55,-20v-38,0,-64,31,-73,92r-9,66r98,0r0,107r-114,0r-26,164v-35,223,-76,335,-210,335v-37,0,-70,-10,-100,-32r22,-117v22,14,40,22,56,22v52,0,62,-53,80,-164r34,-208r-109,0r0,-107r121,0r13,-68v26,-144,91,-217,192,-217v35,0,68,9,100,27"},"@":{"d":"594,-342v-8,-54,-36,-81,-85,-81v-72,0,-138,91,-138,206v0,61,26,92,77,92v52,0,103,-42,120,-111xm570,-133v-36,56,-81,80,-145,80v-104,0,-158,-58,-158,-166v0,-157,105,-275,236,-275v52,0,90,21,115,64r26,-48r87,0r-72,292v-2,8,-3,15,-3,20v0,23,15,34,46,34v24,0,52,-12,79,-37v57,-53,85,-121,85,-206v0,-152,-128,-268,-324,-268v-93,0,-171,22,-236,66v-111,75,-172,189,-172,322v0,200,147,329,371,329v107,0,208,-33,295,-93r40,57v-101,75,-212,113,-333,113v-128,0,-232,-33,-312,-94v-101,-78,-151,-182,-151,-311v0,-109,34,-209,101,-290v96,-117,232,-179,400,-179v113,0,212,32,281,85v87,67,131,156,131,265v0,108,-44,201,-124,265v-47,37,-99,56,-158,56v-69,0,-104,-27,-105,-81","w":1000},"&":{"d":"624,-111r94,0r0,111r-190,0r-60,-80v-60,63,-128,94,-206,94v-65,0,-121,-21,-165,-62v-48,-44,-73,-100,-73,-165v0,-93,57,-161,176,-217v-32,-46,-48,-87,-48,-122v0,-90,70,-154,176,-154v110,0,177,60,177,144v0,62,-37,105,-113,150r100,127v37,-52,62,-99,76,-142r150,0r0,110r-76,0v-23,49,-48,91,-79,126xm325,-494v39,-26,59,-51,59,-79v0,-24,-22,-47,-50,-47v-31,0,-49,18,-49,46v0,21,13,47,40,80xm264,-345v-59,25,-90,67,-90,111v0,58,53,111,116,111v36,0,71,-17,109,-51","w":743},"%":{"d":"177,-400v24,0,57,-23,57,-106v0,-83,-33,-106,-57,-106v-21,0,-55,19,-55,106v0,87,34,106,55,106xm178,-307v-101,0,-161,-82,-161,-199v0,-138,80,-200,161,-200v83,0,160,62,160,200v0,117,-58,199,-160,199xm653,-706r-424,720r-87,0r424,-720r87,0xm617,14v-82,0,-160,-59,-160,-199v0,-139,78,-200,160,-200v83,0,161,62,161,200v0,140,-78,199,-161,199xm617,-79v23,0,56,-20,56,-106v0,-86,-33,-106,-56,-106v-27,0,-56,31,-56,106v0,75,29,106,56,106","w":796},"\u00a9":{"d":"416,-722v99,0,191,39,261,109v78,80,103,175,103,255v0,60,-15,169,-107,257v-58,56,-146,106,-257,106v-113,0,-200,-53,-258,-110v-56,-57,-104,-141,-104,-253v0,-41,6,-109,53,-189v66,-109,177,-175,309,-175xm417,-662v-159,0,-303,127,-303,303v0,65,21,146,87,212v68,69,150,92,215,92v92,0,167,-43,215,-89v43,-44,89,-112,89,-209v0,-63,-17,-150,-86,-218v-58,-59,-134,-91,-217,-91xm533,-412v-12,-24,-47,-77,-112,-77v-55,0,-111,37,-111,138v0,102,56,139,112,139v70,0,106,-59,119,-101r71,34v-31,91,-103,139,-196,139v-53,0,-107,-13,-153,-59v-45,-45,-60,-100,-60,-151v0,-81,34,-125,59,-150v25,-25,68,-58,146,-58v69,0,105,28,125,50r0,-43r59,0r0,139r-59,0","w":833},"\u00ae":{"d":"416,-722v99,0,191,39,261,109v78,80,103,175,103,255v0,60,-15,169,-107,257v-58,56,-146,106,-257,106v-113,0,-200,-53,-258,-110v-56,-57,-104,-141,-104,-253v0,-41,6,-109,53,-189v66,-109,177,-175,309,-175xm417,-662v-159,0,-303,127,-303,303v0,65,21,146,87,212v68,69,150,92,215,92v92,0,167,-43,215,-89v43,-44,89,-112,89,-209v0,-63,-17,-150,-86,-218v-58,-59,-134,-91,-217,-91xm376,-502r0,98r28,0v28,0,72,-1,72,-49v0,-49,-49,-49,-74,-49r-26,0xm376,-228r43,0r0,66r-184,0r0,-66r43,0r0,-274r-43,0r0,-63r190,0v67,0,154,8,154,113v0,16,-1,79,-68,96r65,128r46,0r0,66r-113,0r-91,-178r-42,0r0,112","w":833},"\u2122":{"d":"101,-714r237,0r0,55r-82,0r0,212r-73,0r0,-212r-82,0r0,-55xm392,-714r96,0r62,162r60,-162r96,0r0,267r-66,0r0,-200r-75,200r-30,0r-77,-200r0,200r-66,0r0,-267","w":833},"`":{"d":"107,-741r126,0r96,181r-69,0","w":626},"\u00b4":{"d":"393,-741r-153,181r-69,0r96,-181r126,0","w":500},"\u00a8":{"d":"97,-650v0,-40,36,-64,64,-64v36,0,63,30,63,64v0,38,-27,64,-63,64v-36,0,-64,-28,-64,-64xm275,-650v0,-40,36,-64,64,-64v28,0,64,22,64,64v0,40,-30,64,-64,64v-36,0,-64,-28,-64,-64","w":500},"\u02d9":{"d":"184,-649v0,-36,30,-67,66,-67v38,0,67,30,67,67v0,37,-29,67,-67,67v-36,0,-66,-31,-66,-67","w":500},"\u0131":{"d":"81,-388r-65,0r0,-106r213,0r0,385r70,0r0,109r-283,0r0,-109r65,0r0,-279","w":306},"\u0491":{"d":"17,-494r341,0r0,-78r107,0r0,184r-234,0r0,279r70,0r0,109r-284,0r0,-109r65,0r0,-279r-65,0r0,-106","w":478},"\u045b":{"d":"54,0r0,-109r64,0r0,-370r-106,0r0,-74r106,0r0,-46r-64,0r0,-95r213,0r0,141r205,0r0,74r-205,0r0,84v68,-46,120,-49,145,-49v131,0,135,129,135,164r0,171r69,0r0,109r-219,0r0,-243v0,-50,-10,-81,-54,-81v-24,0,-52,11,-75,32r0,183r74,0r0,109r-288,0","w":621},"\u0452":{"d":"42,0r0,-109r64,0r0,-370r-106,0r0,-74r106,0r0,-46r-64,0r0,-95r213,0r0,141r205,0r0,74r-205,0r0,84v59,-41,109,-49,149,-49v137,0,146,111,146,164r0,260v0,172,-123,198,-200,196r0,-124v40,-5,52,-27,52,-88r0,-207v0,-72,-30,-81,-55,-81v-28,0,-63,12,-91,32r0,183r54,0r0,109r-268,0","w":605},"\u0455":{"d":"43,0r0,-174r116,0v0,52,39,84,101,84v45,0,68,-21,68,-50v0,-33,-28,-39,-78,-50r-99,-22v-25,-5,-120,-31,-120,-139v0,-95,71,-155,169,-155v54,0,99,20,126,35r0,-23r111,0r0,143r-111,0v-26,-46,-74,-55,-104,-55v-39,0,-56,18,-56,37v0,33,41,38,73,44r79,16v30,6,67,15,97,40v24,20,48,55,48,114v0,35,-11,77,-35,107v-28,35,-77,62,-142,62v-54,0,-102,-20,-127,-33r0,19r-116,0","w":495},"\u0456":{"d":"81,-388r-65,0r0,-106r213,0r0,385r70,0r0,109r-283,0r0,-109r65,0r0,-279xm67,-624v0,-46,36,-82,81,-82v46,0,83,37,83,81v0,46,-37,82,-83,82v-44,0,-81,-35,-81,-81","w":306},"\u0457":{"d":"126,-388r-65,0r0,-106r213,0r0,385r70,0r0,109r-283,0r0,-109r65,0r0,-279xm3,-624v0,-46,36,-82,81,-82v46,0,83,37,83,81v0,46,-37,82,-83,82v-44,0,-81,-35,-81,-81xm201,-624v0,-46,36,-82,81,-82v46,0,83,37,83,81v0,46,-37,82,-83,82v-44,0,-81,-35,-81,-81","w":369},"\u0458":{"d":"60,-624v0,-46,36,-82,81,-82v46,0,83,36,83,82v0,44,-37,81,-83,81v-44,0,-81,-35,-81,-81xm74,-388r-64,0r0,-106r212,0r0,474v0,74,-17,195,-194,195v-20,0,-45,-4,-61,-6r0,-115r24,1v79,3,83,-37,83,-91r0,-352","w":288},"\u0459":{"d":"591,-388r-75,0r0,86r104,0v84,0,163,40,163,146v0,113,-75,156,-212,156r-261,0r0,-109r57,0r0,-279r-105,0r0,90v0,164,-11,312,-187,312v-23,0,-46,-3,-66,-8r4,-104v10,2,18,2,26,2v92,0,95,-102,95,-182r0,-16r0,-94r-65,0r0,-106r522,0r0,106xm516,-207r0,98r58,0v7,0,57,0,57,-50v0,-47,-46,-48,-61,-48r-54,0","w":800},"\u045a":{"d":"580,-388r-75,0r0,86r104,0v84,0,163,40,163,146v0,113,-75,156,-212,156r-204,0r0,-207r-125,0r0,98r70,0r0,109r-284,0r0,-109r65,0r0,-279r-65,0r0,-106r212,0r0,192r127,0r0,-86r-65,0r0,-106r289,0r0,106xm505,-207r0,98r58,0v7,0,57,0,57,-50v0,-47,-46,-48,-61,-48r-54,0","w":789},"\u045f":{"d":"497,-109r70,0r0,109r-233,0r0,160r-114,0r0,-160r-220,0r0,-109r65,0r0,-279r-65,0r0,-106r214,0r0,385r126,0r0,-279r-65,0r0,-106r292,0r0,106r-70,0r0,279","w":567},"\u0454":{"d":"382,-494r106,0r0,162r-108,0v-27,-54,-80,-59,-103,-59v-73,0,-99,49,-105,86r152,0r0,101r-152,0v2,62,54,101,113,101v56,0,100,-29,123,-76r110,53v-28,62,-92,140,-241,140v-180,0,-258,-125,-258,-262v0,-171,120,-258,240,-258v74,0,108,29,123,44r0,-32","w":533},"\u0490":{"d":"261,-113r85,0r0,113r-328,0r0,-113r74,0r0,-473r-74,0r0,-108r427,0r0,-109r122,0r0,217r-306,0r0,473","w":583},"\u040b":{"d":"455,-113r0,113r-330,0r0,-113r96,0r0,-473r-97,0r0,112r-112,0r0,-220r588,0r0,220r-112,0r0,-112r-98,0r0,188v21,-4,74,-12,135,-12v187,0,202,100,202,168r0,129r64,0r0,113r-277,0r0,-113r52,0r0,-97v0,-75,-59,-81,-98,-81v-29,0,-54,2,-78,6r0,172r65,0","w":802},"\u0402":{"d":"455,-113r0,113r-330,0r0,-113r96,0r0,-473r-97,0r0,112r-112,0r0,-220r588,0r0,220r-112,0r0,-112r-98,0r0,172v31,-4,79,-9,115,-9v96,0,153,29,186,63v47,48,54,108,54,150v0,36,-5,94,-42,143v-30,40,-91,84,-181,81r0,-127v26,-1,44,-14,54,-26v13,-16,20,-41,20,-65v0,-30,-10,-62,-31,-81v-27,-24,-65,-25,-92,-25v-34,0,-56,2,-83,9r0,188r65,0","w":756},"\u0405":{"d":"56,0r0,-238r111,0v-4,85,50,135,119,135v56,0,93,-29,93,-74v0,-53,-44,-78,-98,-104r-99,-48v-56,-27,-134,-73,-134,-184v0,-113,81,-193,202,-193v31,0,89,6,150,53r0,-41r112,0r0,206r-112,0v0,-59,-39,-109,-107,-109v-55,0,-78,35,-78,69v0,45,38,66,74,82r91,41v85,38,168,98,168,216v0,121,-84,204,-209,204v-31,0,-108,-5,-172,-59r0,44r-111,0","w":589},"\u0406":{"d":"16,0r0,-113r74,0r0,-473r-74,0r0,-108r317,0r0,108r-74,0r0,473r74,0r0,113r-317,0","w":350},"\u0408":{"d":"-33,20v14,4,36,9,56,9v56,0,70,-31,70,-106r0,-509r-86,0r0,-108r329,0r0,108r-74,0r0,507v0,97,-18,241,-207,241v-32,0,-60,-5,-88,-14r0,-128","w":350},"\u0409":{"d":"699,-586r-74,0r0,165r122,0v46,0,115,8,166,59v41,41,53,92,53,150v0,35,-4,106,-56,156v-56,53,-139,56,-186,56r-342,0r0,-113r74,0r0,-473r-144,0r0,166v0,357,-69,434,-217,434v-33,0,-57,-2,-83,-8r0,-121v11,2,22,3,32,3v125,0,127,-138,127,-274r0,-16r0,-184r-74,0r0,-108r602,0r0,108xm625,-310r0,197r68,0v60,0,96,-40,96,-99v0,-57,-31,-98,-87,-98r-77,0","w":984},"\u040a":{"d":"703,-586r-74,0r0,165r122,0v46,0,115,8,166,59v41,41,53,92,53,150v0,35,-4,106,-56,156v-56,53,-139,56,-186,56r-331,0r0,-113r63,0r0,-197r-199,0r0,197r64,0r0,113r-307,0r0,-113r74,0r0,-473r-74,0r0,-108r307,0r0,108r-64,0r0,165r199,0r0,-165r-63,0r0,-108r306,0r0,108xm629,-310r0,197r68,0v60,0,96,-40,96,-99v0,-57,-31,-98,-87,-98r-77,0","w":988},"\u040f":{"d":"697,-585r-74,0r0,472r74,0r0,113r-281,0r0,176r-119,0r0,-176r-280,0r0,-113r74,0r0,-474r-74,0r0,-107r307,0r0,107r-64,0r0,474r194,0r0,-473r-64,0r0,-108r307,0r0,109","w":715},"\u0404":{"d":"584,-454v-20,-41,-79,-134,-193,-134v-60,0,-104,25,-131,54v-29,31,-49,75,-55,117r246,0r0,117r-245,0v1,36,11,75,32,108v35,55,93,82,156,82v121,0,183,-102,204,-175r122,59v-75,233,-292,240,-335,240v-91,0,-188,-24,-265,-101v-56,-55,-103,-138,-103,-261v0,-121,45,-203,101,-259v77,-77,169,-99,251,-99v106,0,170,37,215,86r0,-74r103,0r0,240r-103,0","w":738},"\u20ac":{"d":"48,-450r70,0v10,-42,33,-101,89,-157v88,-87,190,-99,251,-99v106,0,170,37,215,86r0,-74r103,0r0,195r-110,0v-49,-85,-134,-91,-168,-91v-129,0,-177,78,-194,140r329,0r-30,82r-312,0v-3,20,-3,39,1,57r293,0r-30,82r-244,0v24,73,89,119,172,119v83,0,156,-51,191,-134r119,57v-52,126,-168,201,-320,201v-90,0,-187,-24,-264,-101v-51,-51,-74,-104,-86,-142r-105,0r30,-82r60,0v-2,-20,-3,-39,-1,-57r-89,0","w":819},"-":{"d":"37,-187r0,-129r259,0r0,129r-259,0","w":333},"\u03bc":{"d":"100,-533r141,0r-37,212v-12,66,-15,111,-15,131v0,61,27,90,83,90v70,0,99,-57,121,-182r44,-251r141,0r-94,533r-131,0r9,-57v-27,50,-59,73,-105,73v-44,0,-77,-19,-104,-59r-44,257r-140,0","w":610},"\u0453":{"d":"17,-494r448,0r0,184r-107,0r0,-78r-127,0r0,279r70,0r0,109r-284,0r0,-109r65,0r0,-279r-65,0r0,-106xm382,-741r-153,181r-69,0r96,-181r126,0","w":478},"\u045c":{"d":"233,-109r64,0r0,109r-279,0r0,-109r65,0r0,-279r-65,0r0,-106r266,0r0,106r-51,0r0,279xm236,-251r162,-137r-54,0r0,-106r242,0r0,106r-54,0r-142,119r136,160r60,0r0,109r-146,0xm444,-741r-153,181r-69,0r96,-181r126,0","w":602},"\u045e":{"d":"95,162r0,-106r104,0r22,-54r-170,-390r-65,0r0,-106r270,0r0,106r-56,0r91,219r80,-219r-52,0r0,-106r232,0r0,106r-66,0r-215,550r-175,0xm351,-707r135,11v-7,75,-57,138,-199,138v-142,0,-192,-63,-199,-138r135,-11v2,33,25,60,64,60v39,0,62,-27,64,-60","w":539},"\u0403":{"d":"261,-113r85,0r0,113r-328,0r0,-113r74,0r0,-473r-74,0r0,-108r549,0r0,214r-122,0r0,-106r-184,0r0,473xm434,-941r-153,181r-69,0r96,-181r126,0","w":583},"\u0407":{"d":"16,0r0,-113r74,0r0,-473r-74,0r0,-108r317,0r0,108r-74,0r0,473r74,0r0,113r-317,0xm22,-850v0,-40,36,-64,64,-64v36,0,63,30,63,64v0,38,-27,64,-63,64v-36,0,-64,-28,-64,-64xm200,-850v0,-40,36,-64,64,-64v28,0,64,22,64,64v0,40,-30,64,-64,64v-36,0,-64,-28,-64,-64","w":350},"\u040c":{"d":"16,0r0,-113r74,0r0,-473r-74,0r0,-108r317,0r0,108r-74,0r0,473r74,0r0,113r-317,0xm384,0r0,-113r73,0r-194,-254r211,-219r-76,0r0,-108r287,0r0,108r-58,0r-190,199r216,274r74,0r0,113r-343,0xm514,-941r-153,181r-69,0r96,-181r126,0","w":685},"\u040e":{"d":"707,-586r-70,0r-277,586r-234,0r0,-113r138,0r23,-48r-200,-425r-77,0r0,-108r319,0r0,108r-61,0r110,256r111,-256r-70,0r0,-108r288,0r0,108xm417,-904r135,13v-3,63,-39,143,-199,143v-160,0,-196,-80,-199,-143r135,-13v2,33,25,60,64,60v39,0,62,-27,64,-60","w":707},"\u00a0":{"w":233},"\u0410":{"d":"-20,0r0,-113r76,0r153,-473r-94,0r0,-108r463,0r0,108r-83,0r154,473r63,0r0,113r-308,0r0,-113r74,0r-38,-130r-201,0r-37,130r77,0r0,113r-299,0xm265,-333r151,0r-75,-257","w":692},"\u0412":{"d":"255,-110r53,0v49,0,119,-6,119,-91v0,-106,-100,-109,-131,-109r-41,0r0,200xm255,-412r42,0v97,0,110,-50,110,-91v0,-81,-65,-85,-110,-85r-42,0r0,176xm16,-694r303,0v65,0,251,2,251,186v0,28,-5,110,-106,139v83,27,128,95,128,178v0,122,-87,191,-235,191r-341,0r0,-113r74,0r0,-473r-74,0r0,-108","w":632},"\u0415":{"d":"473,-113r0,-114r125,0r0,227r-582,0r0,-113r74,0r0,-473r-74,0r0,-108r582,0r0,215r-125,0r0,-107r-214,0r0,170r177,0r0,114r-177,0r0,189r214,0","w":625},"\u041a":{"d":"16,0r0,-113r74,0r0,-473r-74,0r0,-108r317,0r0,108r-74,0r0,473r74,0r0,113r-317,0xm384,0r0,-113r73,0r-194,-254r211,-219r-76,0r0,-108r287,0r0,108r-58,0r-190,199r216,274r74,0r0,113r-343,0","w":685},"\u041c":{"d":"406,0r-210,-586r0,473r72,0r0,113r-252,0r0,-113r72,0r0,-473r-72,0r0,-108r289,0r152,428r157,-428r305,0r0,108r-72,0r0,473r72,0r0,113r-308,0r0,-113r72,0r0,-473r-214,586r-63,0","w":934},"\u041d":{"d":"16,0r0,-113r74,0r0,-473r-74,0r0,-108r307,0r0,108r-64,0r0,159r199,0r0,-159r-63,0r0,-108r306,0r0,108r-74,0r0,473r74,0r0,113r-306,0r0,-113r63,0r0,-201r-199,0r0,201r64,0r0,113r-307,0","w":718},"\u041e":{"d":"397,-706v133,0,215,62,255,102v86,87,100,196,100,258v0,61,-13,170,-101,258v-54,54,-137,102,-260,102v-86,0,-182,-24,-259,-101v-88,-89,-102,-195,-102,-259v0,-65,12,-169,101,-257v79,-79,182,-103,266,-103xm391,-111v89,0,175,-76,175,-238v0,-162,-86,-238,-175,-238v-89,0,-175,76,-175,238v0,162,86,238,175,238","w":782},"\u0420":{"d":"259,-586r0,216r32,0v58,0,140,-7,140,-108v0,-101,-79,-108,-140,-108r-32,0xm259,-113r74,0r0,113r-317,0r0,-113r74,0r0,-473r-74,0r0,-108r328,0v207,0,265,88,265,216v0,98,-30,221,-265,221r-85,0r0,144","w":637},"\u0421":{"d":"597,-454v-20,-40,-79,-134,-193,-134v-94,0,-190,65,-190,239v0,172,94,239,193,239v121,0,182,-101,204,-175r122,59v-75,233,-292,240,-336,240v-90,0,-186,-24,-264,-101v-56,-55,-103,-138,-103,-261v0,-121,45,-203,101,-259v77,-77,169,-99,251,-99v106,0,170,37,215,86r0,-74r103,0r0,240r-103,0","w":759},"\u0422":{"d":"486,-113r0,113r-361,0r0,-113r96,0r0,-473r-97,0r0,162r-112,0r0,-270r588,0r0,270r-112,0r0,-162r-98,0r0,473r96,0","w":611},"\u0425":{"d":"-33,0r0,-113r92,0r171,-245r-159,-228r-77,0r0,-108r320,0r0,108r-61,0r89,125r87,-125r-50,0r0,-108r272,0r0,108r-75,0r-162,231r169,242r90,0r0,113r-338,0r0,-113r67,0r-99,-141r-100,141r60,0r0,113r-296,0","w":653},"\u0430":{"d":"324,0r0,-34v-59,44,-116,48,-142,48v-95,0,-156,-59,-156,-155v0,-104,69,-174,175,-174v38,0,84,11,123,27r0,-30v0,-38,-9,-94,-84,-94v-59,0,-84,30,-94,45r-109,-24v15,-48,58,-115,206,-115v129,0,182,41,205,75v25,37,24,77,24,123r0,199r70,0r0,109r-218,0xm324,-132r0,-57v-25,-20,-55,-31,-82,-31v-35,0,-70,18,-70,69v0,47,29,65,58,65v35,0,73,-26,94,-46","w":546},"\u0435":{"d":"181,-219v1,45,22,123,118,123v47,0,87,-22,109,-66r116,37v-61,136,-210,139,-241,139v-152,0,-255,-101,-255,-260v0,-157,101,-260,254,-260v168,0,255,117,255,281r0,6r-356,0xm182,-303r197,0v-3,-52,-39,-94,-98,-94v-57,0,-96,38,-99,94","w":567},"\u043e":{"d":"550,-246v0,156,-107,260,-262,260v-156,0,-260,-103,-260,-259v0,-159,106,-261,260,-261v153,0,262,101,262,260xm288,-107v71,0,110,-57,110,-140v0,-102,-55,-138,-110,-138v-71,0,-110,56,-110,138v0,83,39,140,110,140","w":578},"\u0440":{"d":"76,-388r-65,0r0,-106r207,0r0,76v28,-32,80,-76,154,-76v107,0,215,86,215,262v0,168,-102,246,-210,246v-81,0,-129,-47,-153,-79r0,118r72,0r0,109r-285,0r0,-109r65,0r0,-441xm328,-98v56,0,106,-43,106,-144v0,-87,-39,-143,-106,-143v-66,0,-105,56,-105,143v0,103,51,144,105,144","w":616},"\u0441":{"d":"411,-292v-16,-56,-58,-94,-117,-94v-60,0,-116,37,-116,139v0,103,56,140,118,140v63,0,106,-42,124,-93r116,59v-48,101,-139,155,-248,155v-156,0,-260,-103,-260,-258v0,-153,100,-262,244,-262v83,0,126,36,145,56r0,-44r106,0r0,200","w":556},"\u0443":{"d":"95,162r0,-106r104,0r22,-54r-170,-390r-65,0r0,-106r270,0r0,106r-56,0r91,219r80,-219r-52,0r0,-106r232,0r0,106r-66,0r-215,550r-175,0","w":539},"\u0445":{"d":"-1,0r0,-109r69,0r100,-133r-103,-146r-55,0r0,-106r160,0r90,137r97,-137r133,0r0,106r-64,0r-94,127r106,152r71,0r0,109r-173,0r-96,-146r-104,146r-137,0","w":507}}});